{"learner":{"attributes":{},"feature_names":[],"feature_types":[],"gradient_booster":{"model":{"gbtree_model_param":{"num_parallel_tree":"1","num_trees":"100"},"iteration_indptr":[0,1,2,3,4,5,6,7,8,9,10,11,12,13,14,15,16,17,18,19,20,21,22,23,24,25,26,27,28,29,30,31,32,33,34,35,36,37,38,39,40,41,42,43,44,45,46,47,48,49,50,51,52,53,54,55,56,57,58,59,60,61,62,63,64,65,66,67,68,69,70,71,72,73,74,75,76,77,78,79,80,81,82,83,84,85,86,87,88,89,90,91,92,93,94,95,96,97,98,99,100],"tree_info":[0,0,0,0,0,0,0,0,0,0,0,0,0,0,0,0,0,0,0,0,0,0,0,0,0,0,0,0,0,0,0,0,0,0,0,0,0,0,0,0,0,0,0,0,0,0,0,0,0,0,0,0,0,0,0,0,0,0,0,0,0,0,0,0,0,0,0,0,0,0,0,0,0,0,0,0,0,0,0,0,0,0,0,0,0,0,0,0,0,0,0,0,0,0,0,0,0,0,0,0],"trees":[{"base_weights":[1.0697298E-2,1.4202251E0,-2.0434396E0,5.651869E-1,1.5530148E0,3.8980755E-1,-2.4865906E0,4.0075397E-1,-6.3272685E-1,4.7181925E-1,1.2244079E-1,-7.705083E-1,-2.0621401E-1,-4.4321847E-1,2.6037067E-1],"categories":[],"categories_nodes":[],"categories_segments":[],"categories_sizes":[],"default_left":[0,0,0,0,0,0,0,0,0,0,0,0,0,0,0],"id":0,"left_children":[1,3,5,7,9,-1,11,-1,13,-1,-1,-1,-1,-1,-1],"loss_changes":[2.7796594E2,5.586197E0,6.110878E1,9.361717E0,4.575119E-1,0E0,3.360382E0,0E0,6.7200184E0,0E0,0E0,0E0,0E0,0E0,0E0],"parents":[2147483647,0,0,1,1,2,2,3,3,4,4,6,6,8,8],"right_children":[2,4,6,8,10,-1,12,-1,14,-1,-1,-1,-1,-1,-1],"split_conditions":[1.31E1,1.2E0,1.0174079E0,1E0,1.3E1,3.8980755E-1,1E0,4.0075397E-1,1E0,4.7181925E-1,1.2244079E-1,-7.705083E-1,-2.0621401E-1,-4.4321847E-1,2.6037067E-1],"split_indices":[10,7,2,11,10,0,3,0,3,0,0,0,0,0,0],"split_type":[0,0,0,0,0,0,0,0,0,0,0,0,0,0,0],"sum_hessian":[9.400148E1,5.593088E1,3.8070602E1,8.22513E0,4.7705753E1,4.230067E0,3.3840534E1,4.9350777E0,3.290052E0,4.6530735E1,1.1750185E0,3.1960505E1,1.8800297E0,2.1150334E0,1.1750185E0],"tree_param":{"num_deleted":"0","num_feature":"24","num_nodes":"15","size_leaf_vector":"1"}},{"base_weights":[4.453697E-2,1.2486994E0,-1.3307341E0,3.8998544E-1,-1.8576337E-2,3.540722E-1,-1.6757809E0,-5.1603305E-1,-1.446301E-1],"categories":[],"categories_nodes":[],"categories_segments":[],"categories_sizes":[],"default_left":[0,0,0,0,0,0,0,0,0],"id":1,"left_children":[1,3,5,-1,-1,-1,7,-1,-1],"loss_changes":[1.4784978E2,3.2766342E0,3.8101456E1,0E0,0E0,0E0,1.1322861E0,0E0,0E0],"parents":[2147483647,0,0,1,1,2,2,6,6],"right_children":[2,4,6,-1,-1,-1,8,-1,-1],"split_conditions":[1.3E1,1.43E2,1.0174079E0,3.8998544E-1,-1.8576337E-2,3.540722E-1,1.3E0,-5.1603305E-1,-1.446301E-1],"split_indices":[10,8,2,0,0,0,7,0,0],"split_type":[0,0,0,0,0,0,0,0,0],"sum_hessian":[8.727517E1,4.6581387E1,4.0693783E1,4.48362E1,1.745185E0,4.623936E0,3.6069847E1,3.4353073E1,1.7167735E0],"tree_param":{"num_deleted":"0","num_feature":"24","num_nodes":"9","size_leaf_vector":"1"}},{"base_weights":[4.7900043E-2,1.1015435E0,-1.0788037E0,3.856663E-1,3.6672348E-1,3.1223053E-1,-1.3616538E0,2.9850474E-1,-4.885852E-1,-4.2733493E-1,-7.477044E-2,8.869462E-2,-2.754564E-1],"categories":[],"categories_nodes":[],"categories_segments":[],"categories_sizes":[],"default_left":[0,0,0,0,0,0,0,0,0,0,0,0,0],"id":2,"left_children":[1,3,5,7,-1,-1,9,-1,11,-1,-1,-1,-1],"loss_changes":[9.080842E1,2.9468498E0,2.3591354E1,4.304463E0,0E0,0E0,1.9547462E0,0E0,1.489233E0,0E0,0E0,0E0,0E0],"parents":[2147483647,0,0,1,1,2,2,3,3,6,6,8,8],"right_children":[2,4,6,8,-1,-1,10,-1,12,-1,-1,-1,-1],"split_conditions":[1.3E1,1.2E0,1.0174079E0,1E0,3.6672348E-1,3.1223053E-1,1E0,2.9850474E-1,6.5E1,-4.2733493E-1,-7.477044E-2,8.869462E-2,-2.754564E-1],"split_indices":[10,7,2,11,0,0,3,0,16,0,0,0,0],"split_type":[0,0,0,0,0,0,0,0,0,0,0,0,0],"sum_hessian":[7.4492165E1,3.8505684E1,3.5986485E1,6.167516E0,3.233817E1,3.921403E0,3.206508E1,3.5529745E0,2.614542E0,3.0086222E1,1.9788582E0,1.0356983E0,1.5788437E0],"tree_param":{"num_deleted":"0","num_feature":"24","num_nodes":"13","size_leaf_vector":"1"}},{"base_weights":[5.138552E-2,1.0045259E0,-9.366694E-1,3.2495782E-1,3.407975E-1,2.8122744E-1,-1.1905718E0,2.811332E-1,-4.0560827E-1,-3.7745002E-1,-6.0157247E-2,9.248087E-2,-2.7041557E-1],"categories":[],"categories_nodes":[],"categories_segments":[],"categories_sizes":[],"default_left":[0,0,0,0,0,0,0,0,0,0,0,0,0],"id":3,"left_children":[1,3,5,7,-1,-1,9,-1,11,-1,-1,-1,-1],"loss_changes":[5.954672E1,2.5037918E0,1.5901772E1,3.337674E0,0E0,0E0,1.608551E0,0E0,1.5919709E0,0E0,0E0,0E0,0E0],"parents":[2147483647,0,0,1,1,2,2,3,3,6,6,8,8],"right_children":[2,4,6,8,-1,-1,10,-1,12,-1,-1,-1,-1],"split_conditions":[1.3E1,1.2E0,1.0174079E0,1.0174079E0,3.407975E-1,2.8122744E-1,1E0,2.811332E-1,3.1E1,-3.7745002E-1,-6.0157247E-2,9.248087E-2,-2.7041557E-1],"split_indices":[10,7,2,2,0,0,3,0,15,0,0,0,0],"split_type":[0,0,0,0,0,0,0,0,0,0,0,0,0],"sum_hessian":[6.123042E1,3.1157373E1,3.0073048E1,5.6132703E0,2.5544104E1,3.2669678E0,2.680608E1,2.9003243E0,2.7129462E0,2.4839373E1,1.9667071E0,1.26691E0,1.4460362E0],"tree_param":{"num_deleted":"0","num_feature":"24","num_nodes":"13","size_leaf_vector":"1"}},{"base_weights":[5.3937867E-2,9.2905265E-1,-8.384011E-1,9.985541E-1,-5.241813E-2,2.5611547E-1,-1.0763278E0,6.457395E-2,3.0724442E-1,-3.462719E-1,-4.845456E-2],"categories":[],"categories_nodes":[],"categories_segments":[],"categories_sizes":[],"default_left":[0,0,0,0,0,0,0,0,0,0,0],"id":4,"left_children":[1,3,5,7,-1,-1,9,-1,-1,-1,-1],"loss_changes":[4.0193275E1,2.1657372E0,1.1191721E1,2.7209282E-1,0E0,0E0,1.4395695E0,0E0,0E0,0E0,0E0],"parents":[2147483647,0,0,1,1,2,2,3,3,6,6],"right_children":[2,4,6,8,-1,-1,10,-1,-1,-1,-1],"split_conditions":[1.3E1,1.43E2,1.0174079E0,1.8E1,-5.241813E-2,2.5611547E-1,1E0,6.457395E-2,3.0724442E-1,-3.462719E-1,-4.845456E-2],"split_indices":[10,8,2,6,0,0,3,0,0,0,0],"split_type":[0,0,0,0,0,0,0,0,0,0,0],"sum_hessian":[4.947305E1,2.4956816E1,2.4516233E1,2.3568136E1,1.388678E0,2.7031863E0,2.1813047E1,1.0434414E0,2.2524696E1,1.9859915E1,1.9531337E0],"tree_param":{"num_deleted":"0","num_feature":"24","num_nodes":"11","size_leaf_vector":"1"}},{"base_weights":[5.237861E-2,-6.9501793E-1,9.7925955E-1,2.626419E-1,-1.0030342E0,3.150318E-1,3.565755E-2,6.880685E-2,-1.0809286E0,-3.3712986E-1,-5.1013548E-2],"categories":[],"categories_nodes":[],"categories_segments":[],"categories_sizes":[],"default_left":[0,0,0,0,0,0,0,0,0,0,0],"id":5,"left_children":[1,3,5,-1,7,-1,-1,-1,9,-1,-1],"loss_changes":[2.9063889E1,1.2133246E1,1.0153751E0,0E0,2.1599712E0,0E0,0E0,0E0,5.467377E-1,0E0,0E0],"parents":[2147483647,0,0,1,1,2,2,4,4,8,8],"right_children":[2,4,6,-1,8,-1,-1,-1,10,-1,-1],"split_conditions":[1.3E0,1.0174079E0,1.36E1,2.626419E-1,1.9E1,3.150318E-1,3.565755E-2,6.880685E-2,1.39E2,-3.3712986E-1,-5.1013548E-2],"split_indices":[7,2,10,0,0,0,0,0,5,0,0],"split_type":[0,0,0,0,0,0,0,0,0,0,0],"sum_hessian":[3.9972042E1,2.226703E1,1.7705013E1,3.3490162E0,1.8918015E1,1.615436E1,1.5506535E0,1.0090511E0,1.7908964E1,1.6881348E1,1.0276165E0],"tree_param":{"num_deleted":"0","num_feature":"24","num_nodes":"11","size_leaf_vector":"1"}},{"base_weights":[5.731578E-2,-6.407379E-1,8.903201E-1,6.9726247E-1,-3.2125112E-1,2.665335E-2,3.1738484E-1,2.8114589E-2,2.4729888E-1,2.0764025E-1,-2.3113477E-1],"categories":[],"categories_nodes":[],"categories_segments":[],"categories_sizes":[],"default_left":[0,0,0,0,0,0,0,0,0,0,0],"id":6,"left_children":[1,3,5,7,-1,9,-1,-1,-1,-1,-1],"loss_changes":[1.9907927E1,1.1493526E1,2.2275038E0,3.1758308E-1,0E0,2.4208083E0,0E0,0E0,0E0,0E0,0E0],"parents":[2147483647,0,0,1,1,2,2,3,3,5,5],"right_children":[2,4,6,8,-1,10,-1,-1,-1,-1,-1],"split_conditions":[1E0,1E0,1.1E0,1E0,-3.2125112E-1,1.4E2,3.1738484E-1,2.8114589E-2,2.4729888E-1,2.0764025E-1,-2.3113477E-1],"split_indices":[3,11,7,12,0,8,0,0,0,0,0],"split_type":[0,0,0,0,0,0,0,0,0,0,0],"sum_hessian":[3.22555E1,1.7674862E1,1.4580639E1,4.148397E0,1.3526464E1,2.5583582E0,1.2022281E1,1.0236691E0,3.124728E0,1.466065E0,1.0922931E0],"tree_param":{"num_deleted":"0","num_feature":"24","num_nodes":"11","size_leaf_vector":"1"}},{"base_weights":[6.1714534E-2,-5.527407E-1,8.807825E-1,2.3113707E-1,-8.367948E-1,2.8961703E-1,3.1099057E-2,-2.9516864E-1,7.3405444E-3],"categories":[],"categories_nodes":[],"categories_segments":[],"categories_sizes":[],"default_left":[0,0,0,0,0,0,0,0,0],"id":7,"left_children":[1,3,5,-1,7,-1,-1,-1,-1],"loss_changes":[1.3943053E1,6.6175227E0,6.7879677E-1,0E0,1.7422686E0,0E0,0E0,0E0,0E0],"parents":[2147483647,0,0,1,1,2,2,4,4],"right_children":[2,4,6,-1,8,-1,-1,-1,-1],"split_conditions":[1.3E0,1.0174079E0,1.36E1,2.3113707E-1,1E0,2.8961703E-1,3.1099057E-2,-2.9516864E-1,7.3405444E-3],"split_indices":[7,2,10,0,3,0,0,0,0],"split_type":[0,0,0,0,0,0,0,0,0],"sum_hessian":[2.5736992E1,1.4891055E1,1.0845938E1,2.329108E0,1.2561947E1,9.562561E0,1.2833762E0,1.060779E1,1.9541576E0],"tree_param":{"num_deleted":"0","num_feature":"24","num_nodes":"9","size_leaf_vector":"1"}},{"base_weights":[6.6900544E-2,7.2333294E-1,-5.8659416E-1,2.7671158E-1,1.6734266E-1,-8.510259E-1,2.5602883E-1,-1.14604615E-1,2.0107445E-1,-2.8049338E-1,-2.3910196E-2],"categories":[],"categories_nodes":[],"categories_segments":[],"categories_sizes":[],"default_left":[0,0,0,0,0,0,0,0,0,0,0],"id":8,"left_children":[1,3,5,-1,7,9,-1,-1,-1,-1,-1],"loss_changes":[9.87331E0,1.1112609E0,5.13976E0,0E0,1.4264903E0,5.919924E-1,0E0,0E0,0E0,0E0,0E0],"parents":[2147483647,0,0,1,1,2,2,4,4,5,5],"right_children":[2,4,6,-1,8,10,-1,-1,-1,-1,-1],"split_conditions":[1.3E1,1.02E0,1E0,2.7671158E-1,1E0,1.41E2,2.5602883E-1,-1.14604615E-1,2.0107445E-1,-2.8049338E-1,-2.3910196E-2],"split_indices":[10,2,18,0,3,5,0,0,0,0,0],"split_type":[0,0,0,0,0,0,0,0,0,0,0],"sum_hessian":[2.1026936E1,1.0436575E1,1.0590361E1,7.2000556E0,3.2365196E0,9.292919E0,1.2974405E0,1.6617069E0,1.5748127E0,8.189404E0,1.1035159E0],"tree_param":{"num_deleted":"0","num_feature":"24","num_nodes":"11","size_leaf_vector":"1"}},{"base_weights":[7.538585E-2,7.453533E-1,-5.3086835E-1,2.8336537E-1,6.0843192E-2,-2.7759022E-1,1.8177819E-1,1.692763E-1,-1.5158348E-1],"categories":[],"categories_nodes":[],"categories_segments":[],"categories_sizes":[],"default_left":[0,0,0,0,0,0,0,0,0],"id":9,"left_children":[1,3,5,-1,7,-1,-1,-1,-1],"loss_changes":[7.8569345E0,1.1891112E0,5.1465383E0,0E0,1.1770242E0,0E0,0E0,0E0,0E0],"parents":[2147483647,0,0,1,1,2,2,4,4],"right_children":[2,4,6,-1,8,-1,-1,-1,-1],"split_conditions":[1E0,1.4E2,1E0,2.8336537E-1,1.33E1,-2.7759022E-1,1.8177819E-1,1.692763E-1,-1.5158348E-1],"split_indices":[11,8,3,0,10,0,0,0,0],"split_type":[0,0,0,0,0,0,0,0,0],"sum_hessian":[1.7369747E1,8.142303E0,9.227445E0,6.012673E0,2.1296303E0,6.988648E0,2.2387962E0,1.1289946E0,1.0006356E0],"tree_param":{"num_deleted":"0","num_feature":"24","num_nodes":"9","size_leaf_vector":"1"}},{"base_weights":[7.855622E-2,-3.339944E-1,2.7161124E-1,2.1704134E-1,-6.9947964E-1,-3.455235E-3,-2.73858E-1,-7.369241E-2,7.228833E-2],"categories":[],"categories_nodes":[],"categories_segments":[],"categories_sizes":[],"default_left":[0,0,0,0,0,0,0,0,0],"id":10,"left_children":[1,3,-1,-1,5,7,-1,-1,-1],"loss_changes":[5.4814725E0,4.703213E0,0E0,0E0,1.2709584E0,2.3776226E-1,0E0,0E0,0E0],"parents":[2147483647,0,0,1,1,4,4,5,5],"right_children":[2,4,-1,-1,6,8,-1,-1,-1],"split_conditions":[1E0,1.0174079E0,2.7161124E-1,2.1704134E-1,1.28E1,1.2E2,-2.73858E-1,-7.369241E-2,7.228833E-2],"split_indices":[18,2,0,0,10,5,0,0,0],"split_type":[0,0,0,0,0,0,0,0,0],"sum_hessian":[1.4183349E1,9.859741E0,4.323608E0,2.2808971E0,7.578844E0,2.0167172E0,5.562127E0,1.0104625E0,1.0062547E0],"tree_param":{"num_deleted":"0","num_feature":"24","num_nodes":"9","size_leaf_vector":"1"}},{"base_weights":[8.3135985E-2,6.6593874E-1,-4.5999035E-1,2.534182E-1,1.8697077E-2,-2.4835967E-1,1.496022E-1],"categories":[],"categories_nodes":[],"categories_segments":[],"categories_sizes":[],"default_left":[0,0,0,0,0,0,0],"id":11,"left_children":[1,3,5,-1,-1,-1,-1],"loss_changes":[4.312114E0,6.502459E-1,2.9315891E0,0E0,0E0,0E0,0E0],"parents":[2147483647,0,0,1,1,2,2],"right_children":[2,4,6,-1,-1,-1,-1],"split_conditions":[1E0,1.4E2,1E0,2.534182E-1,1.8697077E-2,-2.4835967E-1,1.496022E-1],"split_indices":[11,8,3,0,0,0,0],"split_type":[0,0,0,0,0,0,0],"sum_hessian":[1.1655098E1,5.5131164E0,6.141981E0,3.945135E0,1.5679812E0,4.537292E0,1.6046892E0],"tree_param":{"num_deleted":"0","num_feature":"24","num_nodes":"7","size_leaf_vector":"1"}},{"base_weights":[8.416137E-2,-3.5945767E-1,6.9686174E-1,1.3526836E-1,-6.746417E-1,6.219961E-2,2.3095012E-1,-6.0999885E-2,1.3162112E-1,-5.9509516E-2,-2.2740489E-1],"categories":[],"categories_nodes":[],"categories_segments":[],"categories_sizes":[],"default_left":[0,0,0,0,0,0,0,0,0,0,0],"id":12,"left_children":[1,3,5,7,9,-1,-1,-1,-1,-1,-1],"loss_changes":[3.2084365E0,1.1783943E0,1.5805483E-2,4.535978E-1,2.5380611E-2,0E0,0E0,0E0,0E0,0E0,0E0],"parents":[2147483647,0,0,1,1,2,2,3,3,4,4],"right_children":[2,4,6,8,10,-1,-1,-1,-1,-1,-1],"split_conditions":[1.3E0,1.39E2,1E0,1.3752875E2,1.35E1,6.219961E-2,2.3095012E-1,-6.0999885E-2,1.3162112E-1,-5.9509516E-2,-2.2740489E-1],"split_indices":[7,8,3,8,10,0,0,0,0,0,0],"split_type":[0,0,0,0,0,0,0,0,0,0,0],"sum_hessian":[9.882574E0,5.9719625E0,3.910612E0,2.5461876E0,3.4257748E0,1.0056306E0,2.9049814E0,1.3593906E0,1.186797E0,1.0137779E0,2.4119968E0],"tree_param":{"num_deleted":"0","num_feature":"24","num_nodes":"11","size_leaf_vector":"1"}},{"base_weights":[7.5846925E-2,2.2789977E-1,-2.978702E-1,-5.8654654E-1,1.830667E-1,-2.3671608E-1,1.3694045E-2],"categories":[],"categories_nodes":[],"categories_segments":[],"categories_sizes":[],"default_left":[0,0,0,0,0,0,0],"id":13,"left_children":[1,-1,3,5,-1,-1,-1],"loss_changes":[2.7160943E0,0E0,2.197698E0,7.8305864E-1,0E0,0E0,0E0],"parents":[2147483647,0,0,2,2,3,3],"right_children":[2,-1,4,6,-1,-1,-1],"split_conditions":[1.0174079E0,2.2789977E-1,1E0,4.8E1,1.830667E-1,-2.3671608E-1,1.3694045E-2],"split_indices":[2,0,18,17,0,0,0],"split_type":[0,0,0,0,0,0,0],"sum_hessian":[8.742771E0,2.724611E0,6.01816E0,4.8351793E0,1.1829808E0,3.4741905E0,1.3609889E0],"tree_param":{"num_deleted":"0","num_feature":"24","num_nodes":"7","size_leaf_vector":"1"}},{"base_weights":[8.374272E-2,5.7096195E-1,-3.8694853E-1,2.1522824E-1,2.4408432E-2,-2.0989096E-1,1.1596114E-1],"categories":[],"categories_nodes":[],"categories_segments":[],"categories_sizes":[],"default_left":[0,0,0,0,0,0,0],"id":14,"left_children":[1,3,5,-1,-1,-1,-1],"loss_changes":[2.1511796E0,2.6717532E-1,1.4500126E0,0E0,0E0,0E0,0E0],"parents":[2147483647,0,0,1,1,2,2],"right_children":[2,4,6,-1,-1,-1,-1],"split_conditions":[1E0,1.4E2,1E0,2.1522824E-1,2.4408432E-2,-2.0989096E-1,1.1596114E-1],"split_indices":[11,8,3,0,0,0,0],"split_type":[0,0,0,0,0,0,0],"sum_hessian":[7.416902E0,3.539788E0,3.8771138E0,2.366508E0,1.1732801E0,2.8289595E0,1.0481545E0],"tree_param":{"num_deleted":"0","num_feature":"24","num_nodes":"7","size_leaf_vector":"1"}},{"base_weights":[8.5656926E-2,2.1046905E-1,-2.708878E-1,7.426238E-2,-1.7491175E-1],"categories":[],"categories_nodes":[],"categories_segments":[],"categories_sizes":[],"default_left":[0,0,0,0,0],"id":15,"left_children":[1,-1,3,-1,-1],"loss_changes":[1.8348054E0,0E0,1.0287468E0,0E0,0E0],"parents":[2147483647,0,0,2,2],"right_children":[2,-1,4,-1,-1],"split_conditions":[1.2526437E1,2.1046905E-1,1E0,7.426238E-2,-1.7491175E-1],"split_indices":[10,0,11,0,0],"split_type":[0,0,0,0,0],"sum_hessian":[6.489862E0,2.0246847E0,4.4651775E0,1.7559062E0,2.709271E0],"tree_param":{"num_deleted":"0","num_feature":"24","num_nodes":"5","size_leaf_vector":"1"}},{"base_weights":[8.426905E-2,4.693036E-1,-3.8949853E-1,1.9727975E-1,1.910029E-2,4.5426744E-3,-1.7976849E-1],"categories":[],"categories_nodes":[],"categories_segments":[],"categories_sizes":[],"default_left":[0,0,0,0,0,0,0],"id":16,"left_children":[1,3,5,-1,-1,-1,-1],"loss_changes":[1.4243373E0,2.795511E-1,3.144098E-1,0E0,0E0,0E0,0E0],"parents":[2147483647,0,0,1,1,2,2],"right_children":[2,4,6,-1,-1,-1,-1],"split_conditions":[1.33E1,1.02E0,1E0,1.9727975E-1,1.910029E-2,4.5426744E-3,-1.7976849E-1],"split_indices":[10,2,11,0,0,0,0],"split_type":[0,0,0,0,0,0,0],"sum_hessian":[5.8060813E0,3.208186E0,2.5978951E0,1.7668577E0,1.4413282E0,1.203579E0,1.3943162E0],"tree_param":{"num_deleted":"0","num_feature":"24","num_nodes":"7","size_leaf_vector":"1"}},{"base_weights":[7.215305E-2,-2.3096003E-1,1.9042018E-1,-1.5758182E-1,7.181284E-2],"categories":[],"categories_nodes":[],"categories_segments":[],"categories_sizes":[],"default_left":[0,0,0,0,0],"id":17,"left_children":[1,3,-1,-1,-1],"loss_changes":[1.2175854E0,7.922122E-1,0E0,0E0,0E0],"parents":[2147483647,0,0,1,1],"right_children":[2,4,-1,-1,-1],"split_conditions":[1E0,4.8E1,1.9042018E-1,-1.5758182E-1,7.181284E-2],"split_indices":[18,17,0,0,0],"split_type":[0,0,0,0,0],"sum_hessian":[5.2805066E0,3.8146658E0,1.465841E0,2.2745585E0,1.5401071E0],"tree_param":{"num_deleted":"0","num_feature":"24","num_nodes":"5","size_leaf_vector":"1"}},{"base_weights":[7.394955E-2,1.776771E-1,-2.1923625E-1,-1.5050179E-1,6.324349E-2],"categories":[],"categories_nodes":[],"categories_segments":[],"categories_sizes":[],"default_left":[0,0,0,0,0],"id":18,"left_children":[1,-1,3,-1,-1],"loss_changes":[1.0116067E0,0E0,6.4455926E-1,0E0,0E0],"parents":[2147483647,0,0,2,2],"right_children":[2,-1,4,-1,-1],"split_conditions":[1.0174079E0,1.776771E-1,1E0,-1.5050179E-1,6.324349E-2],"split_indices":[2,0,3,0,0],"split_type":[0,0,0,0,0],"sum_hessian":[4.8025813E0,1.3665888E0,3.4359925E0,1.9734002E0,1.4625922E0],"tree_param":{"num_deleted":"0","num_feature":"24","num_nodes":"5","size_leaf_vector":"1"}},{"base_weights":[7.382697E-2,1.7004816E-1,-2.052437E-1,-1.4211369E-1,7.736968E-2],"categories":[],"categories_nodes":[],"categories_segments":[],"categories_sizes":[],"default_left":[0,0,0,0,0],"id":19,"left_children":[1,-1,3,-1,-1],"loss_changes":[8.573171E-1,0E0,6.4106053E-1,0E0,0E0],"parents":[2147483647,0,0,2,2],"right_children":[2,-1,4,-1,-1],"split_conditions":[1.2526437E1,1.7004816E-1,1.2E0,-1.4211369E-1,7.736968E-2],"split_indices":[10,0,7,0,0],"split_type":[0,0,0,0,0],"sum_hessian":[4.3857327E0,1.2125479E0,3.1731849E0,1.994321E0,1.1788639E0],"tree_param":{"num_deleted":"0","num_feature":"24","num_nodes":"5","size_leaf_vector":"1"}},{"base_weights":[7.751521E-2,3.766666E-1,-8.7916866E-2,8.315422E-3,1.6332176E-1],"categories":[],"categories_nodes":[],"categories_segments":[],"categories_sizes":[],"default_left":[0,0,0,0,0],"id":20,"left_children":[1,3,-1,-1,-1],"loss_changes":[6.679966E-1,1.734305E-1,0E0,0E0,0E0],"parents":[2147483647,0,0,1,1],"right_children":[2,4,-1,-1,-1],"split_conditions":[1.33E1,1E0,-8.7916866E-2,8.315422E-3,1.6332176E-1],"split_indices":[10,3,0,0,0],"split_type":[0,0,0,0,0],"sum_hessian":[4.0300145E0,2.220789E0,1.8092256E0,1.0992534E0,1.1215355E0],"tree_param":{"num_deleted":"0","num_feature":"24","num_nodes":"5","size_leaf_vector":"1"}},{"base_weights":[7.644245E-2,1.14896856E-1,-8.214499E-2],"categories":[],"categories_nodes":[],"categories_segments":[],"categories_sizes":[],"default_left":[0,0,0],"id":21,"left_children":[1,-1,-1],"loss_changes":[6.208034E-1,0E0,0E0],"parents":[2147483647,0,0],"right_children":[2,-1,-1],"split_conditions":[1E0,1.14896856E-1,-8.214499E-2],"split_indices":[11,0,0],"split_type":[0,0,0],"sum_hessian":[3.8051617E0,1.9793694E0,1.8257924E0],"tree_param":{"num_deleted":"0","num_feature":"24","num_nodes":"3","size_leaf_vector":"1"}},{"base_weights":[6.334731E-2,-1.9085048E-1,1.3382359E-1,5.3488653E-2,-1.2885167E-1],"categories":[],"categories_nodes":[],"categories_segments":[],"categories_sizes":[],"default_left":[0,0,0,0,0],"id":22,"left_children":[1,3,-1,-1,-1],"loss_changes":[5.3700596E-1,3.8415825E-1,0E0,0E0,0E0],"parents":[2147483647,0,0,1,1],"right_children":[2,4,-1,-1,-1],"split_conditions":[1.3E0,1.38E2,1.3382359E-1,5.3488653E-2,-1.2885167E-1],"split_indices":[7,8,0,0,0],"split_type":[0,0,0,0,0],"sum_hessian":[3.6446104E0,2.4913094E0,1.1533011E0,1.0775288E0,1.4137805E0],"tree_param":{"num_deleted":"0","num_feature":"24","num_nodes":"5","size_leaf_vector":"1"}},{"base_weights":[6.0205135E-2,9.844305E-2,-7.8377426E-2],"categories":[],"categories_nodes":[],"categories_segments":[],"categories_sizes":[],"default_left":[0,0,0],"id":23,"left_children":[1,-1,-1],"loss_changes":[4.6589616E-1,0E0,0E0],"parents":[2147483647,0,0],"right_children":[2,-1,-1],"split_conditions":[1.33E1,9.844305E-2,-7.8377426E-2],"split_indices":[10,0,0],"split_type":[0,0,0],"sum_hessian":[3.4137437E0,1.8505424E0,1.5632013E0],"tree_param":{"num_deleted":"0","num_feature":"24","num_nodes":"3","size_leaf_vector":"1"}},{"base_weights":[4.8638757E-2,9.878948E-2,-7.606184E-2],"categories":[],"categories_nodes":[],"categories_segments":[],"categories_sizes":[],"default_left":[0,0,0],"id":24,"left_children":[1,-1,-1],"loss_changes":[4.4687185E-1,0E0,0E0],"parents":[2147483647,0,0],"right_children":[2,-1,-1],"split_conditions":[1E0,9.878948E-2,-7.606184E-2],"split_indices":[11,0,0],"split_type":[0,0,0],"sum_hessian":[3.284698E0,1.6564544E0,1.6282436E0],"tree_param":{"num_deleted":"0","num_feature":"24","num_nodes":"3","size_leaf_vector":"1"}},{"base_weights":[4.093095E-2,-6.4822175E-2,1.0224535E-1],"categories":[],"categories_nodes":[],"categories_segments":[],"categories_sizes":[],"default_left":[0,0,0],"id":25,"left_children":[1,-1,-1],"loss_changes":[3.9518368E-1,0E0,0E0],"parents":[2147483647,0,0],"right_children":[2,-1,-1],"split_conditions":[1.2E0,-6.4822175E-2,1.0224535E-1],"split_indices":[7,0,0],"split_type":[0,0,0],"sum_hessian":[3.1719458E0,1.858598E0,1.3133477E0],"tree_param":{"num_deleted":"0","num_feature":"24","num_nodes":"3","size_leaf_vector":"1"}},{"base_weights":[3.910677E-2,8.971492E-2,-7.132424E-2],"categories":[],"categories_nodes":[],"categories_segments":[],"categories_sizes":[],"default_left":[0,0,0],"id":26,"left_children":[1,-1,-1],"loss_changes":[3.644857E-1,0E0,0E0],"parents":[2147483647,0,0],"right_children":[2,-1,-1],"split_conditions":[1.3E1,8.971492E-2,-7.132424E-2],"split_indices":[10,0,0],"split_type":[0,0,0],"sum_hessian":[3.0767326E0,1.545483E0,1.5312498E0],"tree_param":{"num_deleted":"0","num_feature":"24","num_nodes":"3","size_leaf_vector":"1"}},{"base_weights":[3.3044893E-2,-7.306019E-2,8.189703E-2],"categories":[],"categories_nodes":[],"categories_segments":[],"categories_sizes":[],"default_left":[0,0,0],"id":27,"left_children":[1,-1,-1],"loss_changes":[3.304775E-1,0E0,0E0],"parents":[2147483647,0,0],"right_children":[2,-1,-1],"split_conditions":[1.21E2,-7.306019E-2,8.189703E-2],"split_indices":[5,0,0],"split_type":[0,0,0],"sum_hessian":[2.978001E0,1.3764474E0,1.6015536E0],"tree_param":{"num_deleted":"0","num_feature":"24","num_nodes":"3","size_leaf_vector":"1"}},{"base_weights":[2.6033008E-2,8.285497E-2,-6.79104E-2],"categories":[],"categories_nodes":[],"categories_segments":[],"categories_sizes":[],"default_left":[0,0,0],"id":28,"left_children":[1,-1,-1],"loss_changes":[3.090189E-1,0E0,0E0],"parents":[2147483647,0,0],"right_children":[2,-1,-1],"split_conditions":[1E0,8.285497E-2,-6.79104E-2],"split_indices":[11,0,0],"split_type":[0,0,0],"sum_hessian":[2.904134E0,1.4112475E0,1.4928865E0],"tree_param":{"num_deleted":"0","num_feature":"24","num_nodes":"3","size_leaf_vector":"1"}},{"base_weights":[2.27594E-2,7.527233E-2,-7.4923575E-2],"categories":[],"categories_nodes":[],"categories_segments":[],"categories_sizes":[],"default_left":[0,0,0],"id":29,"left_children":[1,-1,-1],"loss_changes":[3.0048075E-1,0E0,0E0],"parents":[2147483647,0,0],"right_children":[2,-1,-1],"split_conditions":[1.39E2,7.527233E-2,-7.4923575E-2],"split_indices":[8,0,0],"split_type":[0,0,0],"sum_hessian":[2.82519E0,1.5808841E0,1.244306E0],"tree_param":{"num_deleted":"0","num_feature":"24","num_nodes":"3","size_leaf_vector":"1"}},{"base_weights":[1.641849E-2,7.363084E-2,-6.6100724E-2],"categories":[],"categories_nodes":[],"categories_segments":[],"categories_sizes":[],"default_left":[0,0,0],"id":30,"left_children":[1,-1,-1],"loss_changes":[2.5758117E-1,0E0,0E0],"parents":[2147483647,0,0],"right_children":[2,-1,-1],"split_conditions":[1.3E1,7.363084E-2,-6.6100724E-2],"split_indices":[10,0,0],"split_type":[0,0,0],"sum_hessian":[2.753218E0,1.380835E0,1.3723829E0],"tree_param":{"num_deleted":"0","num_feature":"24","num_nodes":"3","size_leaf_vector":"1"}},{"base_weights":[1.3902843E-2,7.500402E-2,-6.488007E-2],"categories":[],"categories_nodes":[],"categories_segments":[],"categories_sizes":[],"default_left":[0,0,0],"id":31,"left_children":[1,-1,-1],"loss_changes":[2.5417843E-1,0E0,0E0],"parents":[2147483647,0,0],"right_children":[2,-1,-1],"split_conditions":[1E0,7.500402E-2,-6.488007E-2],"split_indices":[11,0,0],"split_type":[0,0,0],"sum_hessian":[2.6821597E0,1.281436E0,1.4007236E0],"tree_param":{"num_deleted":"0","num_feature":"24","num_nodes":"3","size_leaf_vector":"1"}},{"base_weights":[1.28609E-2,-5.7736766E-2,7.941363E-2],"categories":[],"categories_nodes":[],"categories_segments":[],"categories_sizes":[],"default_left":[0,0,0],"id":32,"left_children":[1,-1,-1],"loss_changes":[2.3805633E-1,0E0,0E0],"parents":[2147483647,0,0],"right_children":[2,-1,-1],"split_conditions":[1.2E0,-5.7736766E-2,7.941363E-2],"split_indices":[7,0,0],"split_type":[0,0,0],"sum_hessian":[2.6185179E0,1.5724465E0,1.0460715E0],"tree_param":{"num_deleted":"0","num_feature":"24","num_nodes":"3","size_leaf_vector":"1"}},{"base_weights":[1.5470766E-2,-5.836226E-2,7.332584E-2],"categories":[],"categories_nodes":[],"categories_segments":[],"categories_sizes":[],"default_left":[0,0,0],"id":33,"left_children":[1,-1,-1],"loss_changes":[2.1879661E-1,0E0,0E0],"parents":[2147483647,0,0],"right_children":[2,-1,-1],"split_conditions":[1E0,-5.836226E-2,7.332584E-2],"split_indices":[3,0,0],"split_type":[0,0,0],"sum_hessian":[2.5615702E0,1.414424E0,1.1471461E0],"tree_param":{"num_deleted":"0","num_feature":"24","num_nodes":"3","size_leaf_vector":"1"}},{"base_weights":[1.5441956E-2,6.783002E-2,-6.518092E-2],"categories":[],"categories_nodes":[],"categories_segments":[],"categories_sizes":[],"default_left":[0,0,0],"id":34,"left_children":[1,-1,-1],"loss_changes":[2.2101183E-1,0E0,0E0],"parents":[2147483647,0,0],"right_children":[2,-1,-1],"split_conditions":[1.33E1,6.783002E-2,-6.518092E-2],"split_indices":[10,0,0],"split_type":[0,0,0],"sum_hessian":[2.506284E0,1.3303865E0,1.1758975E0],"tree_param":{"num_deleted":"0","num_feature":"24","num_nodes":"3","size_leaf_vector":"1"}},{"base_weights":[1.1841594E-2,6.057752E-2,-6.348447E-2],"categories":[],"categories_nodes":[],"categories_segments":[],"categories_sizes":[],"default_left":[0,0,0],"id":35,"left_children":[1,-1,-1],"loss_changes":[1.8916188E-1,0E0,0E0],"parents":[2147483647,0,0],"right_children":[2,-1,-1],"split_conditions":[1.39E2,6.057752E-2,-6.348447E-2],"split_indices":[8,0,0],"split_type":[0,0,0],"sum_hessian":[2.4474447E0,1.374544E0,1.0729008E0],"tree_param":{"num_deleted":"0","num_feature":"24","num_nodes":"3","size_leaf_vector":"1"}},{"base_weights":[7.572764E-3,6.5326944E-2,-5.896612E-2],"categories":[],"categories_nodes":[],"categories_segments":[],"categories_sizes":[],"default_left":[0,0,0],"id":36,"left_children":[1,-1,-1],"loss_changes":[1.887066E-1,0E0,0E0],"parents":[2147483647,0,0],"right_children":[2,-1,-1],"split_conditions":[1E0,6.5326944E-2,-5.896612E-2],"split_indices":[11,0,0],"split_type":[0,0,0],"sum_hessian":[2.400745E0,1.149925E0,1.2508199E0],"tree_param":{"num_deleted":"0","num_feature":"24","num_nodes":"3","size_leaf_vector":"1"}},{"base_weights":[7.363117E-3,5.7966664E-2,-5.8991488E-2],"categories":[],"categories_nodes":[],"categories_segments":[],"categories_sizes":[],"default_left":[0,0,0],"id":37,"left_children":[1,-1,-1],"loss_changes":[1.6511464E-1,0E0,0E0],"parents":[2147483647,0,0],"right_children":[2,-1,-1],"split_conditions":[1.33E1,5.7966664E-2,-5.8991488E-2],"split_indices":[10,0,0],"split_type":[0,0,0],"sum_hessian":[2.3527107E0,1.2587464E0,1.0939643E0],"tree_param":{"num_deleted":"0","num_feature":"24","num_nodes":"3","size_leaf_vector":"1"}},{"base_weights":[4.9443217E-3,-5.862011E-2,5.8084965E-2],"categories":[],"categories_nodes":[],"categories_segments":[],"categories_sizes":[],"default_left":[0,0,0],"id":38,"left_children":[1,-1,-1],"loss_changes":[1.6285941E-1,0E0,0E0],"parents":[2147483647,0,0],"right_children":[2,-1,-1],"split_conditions":[1.21E2,-5.862011E-2,5.8084965E-2],"split_indices":[5,0,0],"split_type":[0,0,0],"sum_hessian":[2.3076296E0,1.1018993E0,1.2057302E0],"tree_param":{"num_deleted":"0","num_feature":"24","num_nodes":"3","size_leaf_vector":"1"}},{"base_weights":[3.3687905E-3,5.9143372E-2,-5.4193128E-2],"categories":[],"categories_nodes":[],"categories_segments":[],"categories_sizes":[],"default_left":[0,0,0],"id":39,"left_children":[1,-1,-1],"loss_changes":[1.5221134E-1,0E0,0E0],"parents":[2147483647,0,0],"right_children":[2,-1,-1],"split_conditions":[1E0,5.9143372E-2,-5.4193128E-2],"split_indices":[11,0,0],"split_type":[0,0,0],"sum_hessian":[2.2699838E0,1.0709E0,1.1990839E0],"tree_param":{"num_deleted":"0","num_feature":"24","num_nodes":"3","size_leaf_vector":"1"}},{"base_weights":[3.979465E-3,5.462718E-2,-5.279585E-2],"categories":[],"categories_nodes":[],"categories_segments":[],"categories_sizes":[],"default_left":[0,0,0],"id":40,"left_children":[1,-1,-1],"loss_changes":[1.3561353E-1,0E0,0E0],"parents":[2147483647,0,0],"right_children":[2,-1,-1],"split_conditions":[1.3E1,5.462718E-2,-5.279585E-2],"split_indices":[10,0,0],"split_type":[0,0,0],"sum_hessian":[2.2310634E0,1.1153746E0,1.1156887E0],"tree_param":{"num_deleted":"0","num_feature":"24","num_nodes":"3","size_leaf_vector":"1"}},{"base_weights":[3.4301837E-3,-5.3113047E-2,5.7112705E-2],"categories":[],"categories_nodes":[],"categories_segments":[],"categories_sizes":[],"default_left":[0,0,0],"id":41,"left_children":[1,-1,-1],"loss_changes":[1.4145602E-1,0E0,0E0],"parents":[2147483647,0,0],"right_children":[2,-1,-1],"split_conditions":[4.8E1,-5.3113047E-2,5.7112705E-2],"split_indices":[0,0,0],"split_type":[0,0,0],"sum_hessian":[2.1936953E0,1.143118E0,1.0505774E0],"tree_param":{"num_deleted":"0","num_feature":"24","num_nodes":"3","size_leaf_vector":"1"}},{"base_weights":[3.7401991E-3,-4.9437527E-2,4.9301315E-2],"categories":[],"categories_nodes":[],"categories_segments":[],"categories_sizes":[],"default_left":[0,0,0],"id":42,"left_children":[1,-1,-1],"loss_changes":[1.1267373E-1,0E0,0E0],"parents":[2147483647,0,0],"right_children":[2,-1,-1],"split_conditions":[1.21E2,-4.9437527E-2,4.9301315E-2],"split_indices":[5,0,0],"split_type":[0,0,0],"sum_hessian":[2.1623747E0,1.0423794E0,1.1199954E0],"tree_param":{"num_deleted":"0","num_feature":"24","num_nodes":"3","size_leaf_vector":"1"}},{"base_weights":[2.6192935E-3,5.172963E-2,-4.7410317E-2],"categories":[],"categories_nodes":[],"categories_segments":[],"categories_sizes":[],"default_left":[0,0,0],"id":43,"left_children":[1,-1,-1],"loss_changes":[1.1279572E-1,0E0,0E0],"parents":[2147483647,0,0],"right_children":[2,-1,-1],"split_conditions":[1E0,5.172963E-2,-4.7410317E-2],"split_indices":[11,0,0],"split_type":[0,0,0],"sum_hessian":[2.1357121E0,1.0026178E0,1.1330943E0],"tree_param":{"num_deleted":"0","num_feature":"24","num_nodes":"3","size_leaf_vector":"1"}},{"base_weights":[3.2830562E-3,5.0593242E-2,-5.1438693E-2],"categories":[],"categories_nodes":[],"categories_segments":[],"categories_sizes":[],"default_left":[0,0,0],"id":44,"left_children":[1,-1,-1],"loss_changes":[1.1867419E-1,0E0,0E0],"parents":[2147483647,0,0],"right_children":[2,-1,-1],"split_conditions":[1.32E1,5.0593242E-2,-5.1438693E-2],"split_indices":[10,0,0],"split_type":[0,0,0],"sum_hessian":[2.1062374E0,1.1001158E0,1.0061218E0],"tree_param":{"num_deleted":"0","num_feature":"24","num_nodes":"3","size_leaf_vector":"1"}},{"base_weights":[2.064867E-3,4.437376E-2,-4.311415E-2],"categories":[],"categories_nodes":[],"categories_segments":[],"categories_sizes":[],"default_left":[0,0,0],"id":45,"left_children":[1,-1,-1],"loss_changes":[8.660987E-2,0E0,0E0],"parents":[2147483647,0,0],"right_children":[2,-1,-1],"split_conditions":[1.3E1,4.437376E-2,-4.311415E-2],"split_indices":[10,0,0],"split_type":[0,0,0],"sum_hessian":[2.0737646E0,1.0293201E0,1.0444444E0],"tree_param":{"num_deleted":"0","num_feature":"24","num_nodes":"3","size_leaf_vector":"1"}},{"base_weights":[1.8928582E-3,4.217793E-2,-4.127028E-2],"categories":[],"categories_nodes":[],"categories_segments":[],"categories_sizes":[],"default_left":[0,0,0],"id":46,"left_children":[1,-1,-1],"loss_changes":[7.831867E-2,0E0,0E0],"parents":[2147483647,0,0],"right_children":[2,-1,-1],"split_conditions":[3.3E1,4.217793E-2,-4.127028E-2],"split_indices":[15,0,0],"split_type":[0,0,0],"sum_hessian":[2.0490103E0,1.0232332E0,1.0257771E0],"tree_param":{"num_deleted":"0","num_feature":"24","num_nodes":"3","size_leaf_vector":"1"}},{"base_weights":[1.6537509E-3,3.7815847E-2,-3.6637776E-2],"categories":[],"categories_nodes":[],"categories_segments":[],"categories_sizes":[],"default_left":[0,0,0],"id":47,"left_children":[1,-1,-1],"loss_changes":[6.2038273E-2,0E0,0E0],"parents":[2147483647,0,0],"right_children":[2,-1,-1],"split_conditions":[1.3E1,3.7815847E-2,-3.6637776E-2],"split_indices":[10,0,0],"split_type":[0,0,0],"sum_hessian":[2.029207E0,1.0029119E0,1.0262951E0],"tree_param":{"num_deleted":"0","num_feature":"24","num_nodes":"3","size_leaf_vector":"1"}},{"base_weights":[1.5722951E-3,3.599984E-2,-3.5110973E-2],"categories":[],"categories_nodes":[],"categories_segments":[],"categories_sizes":[],"default_left":[0,0,0],"id":48,"left_children":[1,-1,-1],"loss_changes":[5.6332223E-2,0E0,0E0],"parents":[2147483647,0,0],"right_children":[2,-1,-1],"split_conditions":[3.3E1,3.599984E-2,-3.5110973E-2],"split_indices":[15,0,0],"split_type":[0,0,0],"sum_hessian":[2.0105624E0,1.0001851E0,1.0103772E0],"tree_param":{"num_deleted":"0","num_feature":"24","num_nodes":"3","size_leaf_vector":"1"}},{"base_weights":[1.418898E-3],"categories":[],"categories_nodes":[],"categories_segments":[],"categories_sizes":[],"default_left":[0],"id":49,"left_children":[-1],"loss_changes":[0E0],"parents":[2147483647],"right_children":[-1],"split_conditions":[4.2566942E-4],"split_indices":[0],"split_type":[0],"sum_hessian":[1.9958478E0],"tree_param":{"num_deleted":"0","num_feature":"24","num_nodes":"1","size_leaf_vector":"1"}},{"base_weights":[1.1349324E-3],"categories":[],"categories_nodes":[],"categories_segments":[],"categories_sizes":[],"default_left":[0],"id":50,"left_children":[-1],"loss_changes":[0E0],"parents":[2147483647],"right_children":[-1],"split_conditions":[3.4047972E-4],"split_indices":[0],"split_type":[0],"sum_hessian":[1.9958205E0],"tree_param":{"num_deleted":"0","num_feature":"24","num_nodes":"1","size_leaf_vector":"1"}},{"base_weights":[9.083868E-4],"categories":[],"categories_nodes":[],"categories_segments":[],"categories_sizes":[],"default_left":[0],"id":51,"left_children":[-1],"loss_changes":[0E0],"parents":[2147483647],"right_children":[-1],"split_conditions":[2.7251604E-4],"split_indices":[0],"split_type":[0],"sum_hessian":[1.9958006E0],"tree_param":{"num_deleted":"0","num_feature":"24","num_nodes":"1","size_leaf_vector":"1"}},{"base_weights":[7.2661415E-4],"categories":[],"categories_nodes":[],"categories_segments":[],"categories_sizes":[],"default_left":[0],"id":52,"left_children":[-1],"loss_changes":[0E0],"parents":[2147483647],"right_children":[-1],"split_conditions":[2.1798426E-4],"split_indices":[0],"split_type":[0],"sum_hessian":[1.9957837E0],"tree_param":{"num_deleted":"0","num_feature":"24","num_nodes":"1","size_leaf_vector":"1"}},{"base_weights":[5.8102235E-4],"categories":[],"categories_nodes":[],"categories_segments":[],"categories_sizes":[],"default_left":[0],"id":53,"left_children":[-1],"loss_changes":[0E0],"parents":[2147483647],"right_children":[-1],"split_conditions":[1.7430671E-4],"split_indices":[0],"split_type":[0],"sum_hessian":[1.9957694E0],"tree_param":{"num_deleted":"0","num_feature":"24","num_nodes":"1","size_leaf_vector":"1"}},{"base_weights":[4.655383E-4],"categories":[],"categories_nodes":[],"categories_segments":[],"categories_sizes":[],"default_left":[0],"id":54,"left_children":[-1],"loss_changes":[0E0],"parents":[2147483647],"right_children":[-1],"split_conditions":[1.396615E-4],"split_indices":[0],"split_type":[0],"sum_hessian":[1.995761E0],"tree_param":{"num_deleted":"0","num_feature":"24","num_nodes":"1","size_leaf_vector":"1"}},{"base_weights":[3.7246008E-4],"categories":[],"categories_nodes":[],"categories_segments":[],"categories_sizes":[],"default_left":[0],"id":55,"left_children":[-1],"loss_changes":[0E0],"parents":[2147483647],"right_children":[-1],"split_conditions":[1.1173803E-4],"split_indices":[0],"split_type":[0],"sum_hessian":[1.9957528E0],"tree_param":{"num_deleted":"0","num_feature":"24","num_nodes":"1","size_leaf_vector":"1"}},{"base_weights":[2.9844185E-4],"categories":[],"categories_nodes":[],"categories_segments":[],"categories_sizes":[],"default_left":[0],"id":56,"left_children":[-1],"loss_changes":[0E0],"parents":[2147483647],"right_children":[-1],"split_conditions":[8.953256E-5],"split_indices":[0],"split_type":[0],"sum_hessian":[1.9957474E0],"tree_param":{"num_deleted":"0","num_feature":"24","num_nodes":"1","size_leaf_vector":"1"}},{"base_weights":[2.3897052E-4],"categories":[],"categories_nodes":[],"categories_segments":[],"categories_sizes":[],"default_left":[0],"id":57,"left_children":[-1],"loss_changes":[0E0],"parents":[2147483647],"right_children":[-1],"split_conditions":[7.169116E-5],"split_indices":[0],"split_type":[0],"sum_hessian":[1.9957428E0],"tree_param":{"num_deleted":"0","num_feature":"24","num_nodes":"1","size_leaf_vector":"1"}},{"base_weights":[1.9033176E-4],"categories":[],"categories_nodes":[],"categories_segments":[],"categories_sizes":[],"default_left":[0],"id":58,"left_children":[-1],"loss_changes":[0E0],"parents":[2147483647],"right_children":[-1],"split_conditions":[5.709953E-5],"split_indices":[0],"split_type":[0],"sum_hessian":[1.9957359E0],"tree_param":{"num_deleted":"0","num_feature":"24","num_nodes":"1","size_leaf_vector":"1"}},{"base_weights":[1.5244547E-4],"categories":[],"categories_nodes":[],"categories_segments":[],"categories_sizes":[],"default_left":[0],"id":59,"left_children":[-1],"loss_changes":[0E0],"parents":[2147483647],"right_children":[-1],"split_conditions":[4.5733643E-5],"split_indices":[0],"split_type":[0],"sum_hessian":[1.9957329E0],"tree_param":{"num_deleted":"0","num_feature":"24","num_nodes":"1","size_leaf_vector":"1"}},{"base_weights":[1.2214357E-4],"categories":[],"categories_nodes":[],"categories_segments":[],"categories_sizes":[],"default_left":[0],"id":60,"left_children":[-1],"loss_changes":[0E0],"parents":[2147483647],"right_children":[-1],"split_conditions":[3.6643072E-5],"split_indices":[0],"split_type":[0],"sum_hessian":[1.9957309E0],"tree_param":{"num_deleted":"0","num_feature":"24","num_nodes":"1","size_leaf_vector":"1"}},{"base_weights":[9.802437E-5],"categories":[],"categories_nodes":[],"categories_segments":[],"categories_sizes":[],"default_left":[0],"id":61,"left_children":[-1],"loss_changes":[0E0],"parents":[2147483647],"right_children":[-1],"split_conditions":[2.9407312E-5],"split_indices":[0],"split_type":[0],"sum_hessian":[1.9957296E0],"tree_param":{"num_deleted":"0","num_feature":"24","num_nodes":"1","size_leaf_vector":"1"}},{"base_weights":[7.8395955E-5],"categories":[],"categories_nodes":[],"categories_segments":[],"categories_sizes":[],"default_left":[0],"id":62,"left_children":[-1],"loss_changes":[0E0],"parents":[2147483647],"right_children":[-1],"split_conditions":[2.3518787E-5],"split_indices":[0],"split_type":[0],"sum_hessian":[1.9957279E0],"tree_param":{"num_deleted":"0","num_feature":"24","num_nodes":"1","size_leaf_vector":"1"}},{"base_weights":[6.221993E-5],"categories":[],"categories_nodes":[],"categories_segments":[],"categories_sizes":[],"default_left":[0],"id":63,"left_children":[-1],"loss_changes":[0E0],"parents":[2147483647],"right_children":[-1],"split_conditions":[1.866598E-5],"split_indices":[0],"split_type":[0],"sum_hessian":[1.9957249E0],"tree_param":{"num_deleted":"0","num_feature":"24","num_nodes":"1","size_leaf_vector":"1"}},{"base_weights":[5.0161812E-5],"categories":[],"categories_nodes":[],"categories_segments":[],"categories_sizes":[],"default_left":[0],"id":64,"left_children":[-1],"loss_changes":[0E0],"parents":[2147483647],"right_children":[-1],"split_conditions":[1.5048544E-5],"split_indices":[0],"split_type":[0],"sum_hessian":[1.9957249E0],"tree_param":{"num_deleted":"0","num_feature":"24","num_nodes":"1","size_leaf_vector":"1"}},{"base_weights":[3.984869E-5],"categories":[],"categories_nodes":[],"categories_segments":[],"categories_sizes":[],"default_left":[0],"id":65,"left_children":[-1],"loss_changes":[0E0],"parents":[2147483647],"right_children":[-1],"split_conditions":[1.1954608E-5],"split_indices":[0],"split_type":[0],"sum_hessian":[1.9957232E0],"tree_param":{"num_deleted":"0","num_feature":"24","num_nodes":"1","size_leaf_vector":"1"}},{"base_weights":[3.2203407E-5],"categories":[],"categories_nodes":[],"categories_segments":[],"categories_sizes":[],"default_left":[0],"id":66,"left_children":[-1],"loss_changes":[0E0],"parents":[2147483647],"right_children":[-1],"split_conditions":[9.661022E-6],"split_indices":[0],"split_type":[0],"sum_hessian":[1.9957234E0],"tree_param":{"num_deleted":"0","num_feature":"24","num_nodes":"1","size_leaf_vector":"1"}},{"base_weights":[2.5601095E-5],"categories":[],"categories_nodes":[],"categories_segments":[],"categories_sizes":[],"default_left":[0],"id":67,"left_children":[-1],"loss_changes":[0E0],"parents":[2147483647],"right_children":[-1],"split_conditions":[7.680329E-6],"split_indices":[0],"split_type":[0],"sum_hessian":[1.9957223E0],"tree_param":{"num_deleted":"0","num_feature":"24","num_nodes":"1","size_leaf_vector":"1"}},{"base_weights":[2.0688834E-5],"categories":[],"categories_nodes":[],"categories_segments":[],"categories_sizes":[],"default_left":[0],"id":68,"left_children":[-1],"loss_changes":[0E0],"parents":[2147483647],"right_children":[-1],"split_conditions":[6.2066506E-6],"split_indices":[0],"split_type":[0],"sum_hessian":[1.9957224E0],"tree_param":{"num_deleted":"0","num_feature":"24","num_nodes":"1","size_leaf_vector":"1"}},{"base_weights":[1.7014878E-5],"categories":[],"categories_nodes":[],"categories_segments":[],"categories_sizes":[],"default_left":[0],"id":69,"left_children":[-1],"loss_changes":[0E0],"parents":[2147483647],"right_children":[-1],"split_conditions":[5.1044635E-6],"split_indices":[0],"split_type":[0],"sum_hessian":[1.9957235E0],"tree_param":{"num_deleted":"0","num_feature":"24","num_nodes":"1","size_leaf_vector":"1"}},{"base_weights":[1.35239625E-5],"categories":[],"categories_nodes":[],"categories_segments":[],"categories_sizes":[],"default_left":[0],"id":70,"left_children":[-1],"loss_changes":[0E0],"parents":[2147483647],"right_children":[-1],"split_conditions":[4.057189E-6],"split_indices":[0],"split_type":[0],"sum_hessian":[1.9957229E0],"tree_param":{"num_deleted":"0","num_feature":"24","num_nodes":"1","size_leaf_vector":"1"}},{"base_weights":[1.0651319E-5],"categories":[],"categories_nodes":[],"categories_segments":[],"categories_sizes":[],"default_left":[0],"id":71,"left_children":[-1],"loss_changes":[0E0],"parents":[2147483647],"right_children":[-1],"split_conditions":[3.1953957E-6],"split_indices":[0],"split_type":[0],"sum_hessian":[1.9957223E0],"tree_param":{"num_deleted":"0","num_feature":"24","num_nodes":"1","size_leaf_vector":"1"}},{"base_weights":[8.662864E-6],"categories":[],"categories_nodes":[],"categories_segments":[],"categories_sizes":[],"default_left":[0],"id":72,"left_children":[-1],"loss_changes":[0E0],"parents":[2147483647],"right_children":[-1],"split_conditions":[2.5988593E-6],"split_indices":[0],"split_type":[0],"sum_hessian":[1.9957225E0],"tree_param":{"num_deleted":"0","num_feature":"24","num_nodes":"1","size_leaf_vector":"1"}},{"base_weights":[6.9268876E-6],"categories":[],"categories_nodes":[],"categories_segments":[],"categories_sizes":[],"default_left":[0],"id":73,"left_children":[-1],"loss_changes":[0E0],"parents":[2147483647],"right_children":[-1],"split_conditions":[2.0780665E-6],"split_indices":[0],"split_type":[0],"sum_hessian":[1.9957223E0],"tree_param":{"num_deleted":"0","num_feature":"24","num_nodes":"1","size_leaf_vector":"1"}},{"base_weights":[5.578214E-6],"categories":[],"categories_nodes":[],"categories_segments":[],"categories_sizes":[],"default_left":[0],"id":74,"left_children":[-1],"loss_changes":[0E0],"parents":[2147483647],"right_children":[-1],"split_conditions":[1.6734642E-6],"split_indices":[0],"split_type":[0],"sum_hessian":[1.9957222E0],"tree_param":{"num_deleted":"0","num_feature":"24","num_nodes":"1","size_leaf_vector":"1"}},{"base_weights":[4.244774E-6],"categories":[],"categories_nodes":[],"categories_segments":[],"categories_sizes":[],"default_left":[0],"id":75,"left_children":[-1],"loss_changes":[0E0],"parents":[2147483647],"right_children":[-1],"split_conditions":[1.2734323E-6],"split_indices":[0],"split_type":[0],"sum_hessian":[1.9957216E0],"tree_param":{"num_deleted":"0","num_feature":"24","num_nodes":"1","size_leaf_vector":"1"}},{"base_weights":[3.44279E-6],"categories":[],"categories_nodes":[],"categories_segments":[],"categories_sizes":[],"default_left":[0],"id":76,"left_children":[-1],"loss_changes":[0E0],"parents":[2147483647],"right_children":[-1],"split_conditions":[1.0328371E-6],"split_indices":[0],"split_type":[0],"sum_hessian":[1.9957217E0],"tree_param":{"num_deleted":"0","num_feature":"24","num_nodes":"1","size_leaf_vector":"1"}},{"base_weights":[2.9248372E-6],"categories":[],"categories_nodes":[],"categories_segments":[],"categories_sizes":[],"default_left":[0],"id":77,"left_children":[-1],"loss_changes":[0E0],"parents":[2147483647],"right_children":[-1],"split_conditions":[8.774512E-7],"split_indices":[0],"split_type":[0],"sum_hessian":[1.9957219E0],"tree_param":{"num_deleted":"0","num_feature":"24","num_nodes":"1","size_leaf_vector":"1"}},{"base_weights":[2.122368E-6],"categories":[],"categories_nodes":[],"categories_segments":[],"categories_sizes":[],"default_left":[0],"id":78,"left_children":[-1],"loss_changes":[0E0],"parents":[2147483647],"right_children":[-1],"split_conditions":[6.367104E-7],"split_indices":[0],"split_type":[0],"sum_hessian":[1.9957213E0],"tree_param":{"num_deleted":"0","num_feature":"24","num_nodes":"1","size_leaf_vector":"1"}},{"base_weights":[1.5401403E-6],"categories":[],"categories_nodes":[],"categories_segments":[],"categories_sizes":[],"default_left":[0],"id":79,"left_children":[-1],"loss_changes":[0E0],"parents":[2147483647],"right_children":[-1],"split_conditions":[4.620421E-7],"split_indices":[0],"split_type":[0],"sum_hessian":[1.9957209E0],"tree_param":{"num_deleted":"0","num_feature":"24","num_nodes":"1","size_leaf_vector":"1"}},{"base_weights":[1.2915882E-6],"categories":[],"categories_nodes":[],"categories_segments":[],"categories_sizes":[],"default_left":[0],"id":80,"left_children":[-1],"loss_changes":[0E0],"parents":[2147483647],"right_children":[-1],"split_conditions":[3.874765E-7],"split_indices":[0],"split_type":[0],"sum_hessian":[1.995721E0],"tree_param":{"num_deleted":"0","num_feature":"24","num_nodes":"1","size_leaf_vector":"1"}},{"base_weights":[1.0459506E-6],"categories":[],"categories_nodes":[],"categories_segments":[],"categories_sizes":[],"default_left":[0],"id":81,"left_children":[-1],"loss_changes":[0E0],"parents":[2147483647],"right_children":[-1],"split_conditions":[3.137852E-7],"split_indices":[0],"split_type":[0],"sum_hessian":[1.9957212E0],"tree_param":{"num_deleted":"0","num_feature":"24","num_nodes":"1","size_leaf_vector":"1"}},{"base_weights":[8.252811E-7],"categories":[],"categories_nodes":[],"categories_segments":[],"categories_sizes":[],"default_left":[0],"id":82,"left_children":[-1],"loss_changes":[0E0],"parents":[2147483647],"right_children":[-1],"split_conditions":[2.4758435E-7],"split_indices":[0],"split_type":[0],"sum_hessian":[1.9957211E0],"tree_param":{"num_deleted":"0","num_feature":"24","num_nodes":"1","size_leaf_vector":"1"}},{"base_weights":[4.9926075E-7],"categories":[],"categories_nodes":[],"categories_segments":[],"categories_sizes":[],"default_left":[0],"id":83,"left_children":[-1],"loss_changes":[0E0],"parents":[2147483647],"right_children":[-1],"split_conditions":[1.4977823E-7],"split_indices":[0],"split_type":[0],"sum_hessian":[1.9957209E0],"tree_param":{"num_deleted":"0","num_feature":"24","num_nodes":"1","size_leaf_vector":"1"}},{"base_weights":[4.58224E-7],"categories":[],"categories_nodes":[],"categories_segments":[],"categories_sizes":[],"default_left":[0],"id":84,"left_children":[-1],"loss_changes":[0E0],"parents":[2147483647],"right_children":[-1],"split_conditions":[1.3746721E-7],"split_indices":[0],"split_type":[0],"sum_hessian":[1.9957209E0],"tree_param":{"num_deleted":"0","num_feature":"24","num_nodes":"1","size_leaf_vector":"1"}},{"base_weights":[4.0723896E-7],"categories":[],"categories_nodes":[],"categories_segments":[],"categories_sizes":[],"default_left":[0],"id":85,"left_children":[-1],"loss_changes":[0E0],"parents":[2147483647],"right_children":[-1],"split_conditions":[1.221717E-7],"split_indices":[0],"split_type":[0],"sum_hessian":[1.9957211E0],"tree_param":{"num_deleted":"0","num_feature":"24","num_nodes":"1","size_leaf_vector":"1"}},{"base_weights":[3.1024308E-7],"categories":[],"categories_nodes":[],"categories_segments":[],"categories_sizes":[],"default_left":[0],"id":86,"left_children":[-1],"loss_changes":[0E0],"parents":[2147483647],"right_children":[-1],"split_conditions":[9.307293E-8],"split_indices":[0],"split_type":[0],"sum_hessian":[1.995721E0],"tree_param":{"num_deleted":"0","num_feature":"24","num_nodes":"1","size_leaf_vector":"1"}},{"base_weights":[2.978077E-7],"categories":[],"categories_nodes":[],"categories_segments":[],"categories_sizes":[],"default_left":[0],"id":87,"left_children":[-1],"loss_changes":[0E0],"parents":[2147483647],"right_children":[-1],"split_conditions":[8.9342315E-8],"split_indices":[0],"split_type":[0],"sum_hessian":[1.995721E0],"tree_param":{"num_deleted":"0","num_feature":"24","num_nodes":"1","size_leaf_vector":"1"}},{"base_weights":[2.9283356E-7],"categories":[],"categories_nodes":[],"categories_segments":[],"categories_sizes":[],"default_left":[0],"id":88,"left_children":[-1],"loss_changes":[0E0],"parents":[2147483647],"right_children":[-1],"split_conditions":[8.785007E-8],"split_indices":[0],"split_type":[0],"sum_hessian":[1.9957211E0],"tree_param":{"num_deleted":"0","num_feature":"24","num_nodes":"1","size_leaf_vector":"1"}},{"base_weights":[2.779111E-7],"categories":[],"categories_nodes":[],"categories_segments":[],"categories_sizes":[],"default_left":[0],"id":89,"left_children":[-1],"loss_changes":[0E0],"parents":[2147483647],"right_children":[-1],"split_conditions":[8.337334E-8],"split_indices":[0],"split_type":[0],"sum_hessian":[1.9957211E0],"tree_param":{"num_deleted":"0","num_feature":"24","num_nodes":"1","size_leaf_vector":"1"}},{"base_weights":[2.679628E-7],"categories":[],"categories_nodes":[],"categories_segments":[],"categories_sizes":[],"default_left":[0],"id":90,"left_children":[-1],"loss_changes":[0E0],"parents":[2147483647],"right_children":[-1],"split_conditions":[8.0388844E-8],"split_indices":[0],"split_type":[0],"sum_hessian":[1.9957211E0],"tree_param":{"num_deleted":"0","num_feature":"24","num_nodes":"1","size_leaf_vector":"1"}},{"base_weights":[2.5801452E-7],"categories":[],"categories_nodes":[],"categories_segments":[],"categories_sizes":[],"default_left":[0],"id":91,"left_children":[-1],"loss_changes":[0E0],"parents":[2147483647],"right_children":[-1],"split_conditions":[7.740436E-8],"split_indices":[0],"split_type":[0],"sum_hessian":[1.9957211E0],"tree_param":{"num_deleted":"0","num_feature":"24","num_nodes":"1","size_leaf_vector":"1"}},{"base_weights":[2.4806621E-7],"categories":[],"categories_nodes":[],"categories_segments":[],"categories_sizes":[],"default_left":[0],"id":92,"left_children":[-1],"loss_changes":[0E0],"parents":[2147483647],"right_children":[-1],"split_conditions":[7.4419866E-8],"split_indices":[0],"split_type":[0],"sum_hessian":[1.9957211E0],"tree_param":{"num_deleted":"0","num_feature":"24","num_nodes":"1","size_leaf_vector":"1"}},{"base_weights":[2.4309207E-7],"categories":[],"categories_nodes":[],"categories_segments":[],"categories_sizes":[],"default_left":[0],"id":93,"left_children":[-1],"loss_changes":[0E0],"parents":[2147483647],"right_children":[-1],"split_conditions":[7.292763E-8],"split_indices":[0],"split_type":[0],"sum_hessian":[1.9957211E0],"tree_param":{"num_deleted":"0","num_feature":"24","num_nodes":"1","size_leaf_vector":"1"}},{"base_weights":[2.306567E-7],"categories":[],"categories_nodes":[],"categories_segments":[],"categories_sizes":[],"default_left":[0],"id":94,"left_children":[-1],"loss_changes":[0E0],"parents":[2147483647],"right_children":[-1],"split_conditions":[6.9197014E-8],"split_indices":[0],"split_type":[0],"sum_hessian":[1.9957212E0],"tree_param":{"num_deleted":"0","num_feature":"24","num_nodes":"1","size_leaf_vector":"1"}},{"base_weights":[2.207084E-7],"categories":[],"categories_nodes":[],"categories_segments":[],"categories_sizes":[],"default_left":[0],"id":95,"left_children":[-1],"loss_changes":[0E0],"parents":[2147483647],"right_children":[-1],"split_conditions":[6.621252E-8],"split_indices":[0],"split_type":[0],"sum_hessian":[1.9957212E0],"tree_param":{"num_deleted":"0","num_feature":"24","num_nodes":"1","size_leaf_vector":"1"}},{"base_weights":[2.1573425E-7],"categories":[],"categories_nodes":[],"categories_segments":[],"categories_sizes":[],"default_left":[0],"id":96,"left_children":[-1],"loss_changes":[0E0],"parents":[2147483647],"right_children":[-1],"split_conditions":[6.4720275E-8],"split_indices":[0],"split_type":[0],"sum_hessian":[1.9957212E0],"tree_param":{"num_deleted":"0","num_feature":"24","num_nodes":"1","size_leaf_vector":"1"}},{"base_weights":[2.008118E-7],"categories":[],"categories_nodes":[],"categories_segments":[],"categories_sizes":[],"default_left":[0],"id":97,"left_children":[-1],"loss_changes":[0E0],"parents":[2147483647],"right_children":[-1],"split_conditions":[6.024354E-8],"split_indices":[0],"split_type":[0],"sum_hessian":[1.9957212E0],"tree_param":{"num_deleted":"0","num_feature":"24","num_nodes":"1","size_leaf_vector":"1"}},{"base_weights":[1.9583766E-7],"categories":[],"categories_nodes":[],"categories_segments":[],"categories_sizes":[],"default_left":[0],"id":98,"left_children":[-1],"loss_changes":[0E0],"parents":[2147483647],"right_children":[-1],"split_conditions":[5.87513E-8],"split_indices":[0],"split_type":[0],"sum_hessian":[1.9957212E0],"tree_param":{"num_deleted":"0","num_feature":"24","num_nodes":"1","size_leaf_vector":"1"}},{"base_weights":[1.9583766E-7],"categories":[],"categories_nodes":[],"categories_segments":[],"categories_sizes":[],"default_left":[0],"id":99,"left_children":[-1],"loss_changes":[0E0],"parents":[2147483647],"right_children":[-1],"split_conditions":[5.87513E-8],"split_indices":[0],"split_type":[0],"sum_hessian":[1.9957212E0],"tree_param":{"num_deleted":"0","num_feature":"24","num_nodes":"1","size_leaf_vector":"1"}}]},"name":"gbtree"},"learner_model_param":{"base_score":"6.2245935E-1","boost_from_average":"1","num_class":"0","num_feature":"24","num_target":"1"},"objective":{"name":"binary:logistic","reg_loss_param":{"scale_pos_weight":"1"}}},"version":[2,0,3]}